{
  "conv2d_weights": [
    "403405242368",
    "304365797376",
    "235511644160",
    "117679210496",
    "369820598272",
    "369435803648",
    "221078290432",
    "-425134292992",
    "80874520576",
    "245514108928",
    "187810496512",
    "-330524065792",
    "-32316233728",
    "-14922057728",
    "-200911880192",
    "1920103296",
    "-41124859904",
    "-115676495872",
    "-215916150784",
    "173553500160",
    "-117569585152",
    "-75012554752",
    "-49569116160",
    "-174658912256",
    "-264812494848",
    "-263167295488",
    "-255334825984",
    "359079608320",
    "-243380076544",
    "-393249521664",
    "-161447706624",
    "74104496128",
    "-186532839424",
    "-221273522176",
    "-172075499520",
    "-46639788032"
  ],
  "conv2d_bias": ["0", "0", "0", "0"],
  "batch_normalization_a": [
    "11801251020800",
    "7735594713088",
    "5929726640128",
    "3613041360896"
  ],
  "batch_normalization_b": [
    "245876039268925291102208",
    "714476048871186646433792",
    "1332232071569024141492224",
    "430300893967944391852032"
  ],
  "dense_weights": [
    "-740124786688",
    "1196192301056",
    "-1536958136320",
    "1008642883584",
    "-403481919488",
    "1017656573952",
    "678901579776",
    "-1020546908160"
  ],
  "dense_bias": [
    "-37879988551139837203300000819793879167869894840645006131200",
    "37879962474107746081822244188339672384849354037826764668928"
  ]
}
