{"conv2d_weights": ["-333429997568", "187689779200", "-188812001280", "337814749184", "75445903360", "-323181936640", "-355153149952", "337260052480", "-232818655232", "-103362535424", "-43360043008", "-158397759488", "347956281344", "-346289012736", "1715365760", "-65816788992", "149287813120", "339770867712", "301016743936", "-23415363584", "25395761152", "-82288738304", "-20345393152", "242068029440", "-168263516160", "62386991104", "167882997760", "-386649358336", "163811213312", "-15747522560", "254475976704", "-103496376320", "221910794240", "525326024704", "-58888212480", "-128811491328"], "conv2d_bias": ["0", "0", "0", "0"], "batch_normalization_a": ["62195867648", "60894838784", "100129497088", "121842089984"], "batch_normalization_b": ["-2135494677567578111475712", "-2056629514390510971650048", "-804851692119872394756096", "-814392766088840394833920"], "dense_weights": ["341283766272", "-774646136832", "-269562658816", "-864747585536", "482132033536", "-504964939776", "-328049131520", "1071110094848"], "dense_bias": ["-64280785620212568611055265791025422761450339341454056357888", "64280800521373761944703612542526173670625057468181515337728"]}